digraph Tree {
node [shape=box] ;
0 [label="X[8] <= -0.375\ngini = 0.5\nsamples = 5199\nvalue = [2599.5, 2599.5]"] ;
1 [label="X[20] <= -0.116\ngini = 0.257\nsamples = 2111\nvalue = [327.23, 1838.114]"] ;
0 -> 1 [labeldistance=2.5, labelangle=45, headlabel="True"] ;
2 [label="X[19] <= -0.882\ngini = 0.225\nsamples = 362\nvalue = [306.959, 45.642]"] ;
1 -> 2 ;
3 [label="gini = 0.0\nsamples = 30\nvalue = [0.0, 31.119]"] ;
2 -> 3 ;
4 [label="X[21] <= -0.586\ngini = 0.086\nsamples = 332\nvalue = [306.959, 14.522]"] ;
2 -> 4 ;
5 [label="gini = 0.0\nsamples = 14\nvalue = [0.0, 14.522]"] ;
4 -> 5 ;
6 [label="gini = -0.0\nsamples = 318\nvalue = [306.959, 0.0]"] ;
4 -> 6 ;
7 [label="X[10] <= 0.847\ngini = 0.022\nsamples = 1749\nvalue = [20.271, 1792.472]"] ;
1 -> 7 ;
8 [label="X[12] <= -1.622\ngini = 0.007\nsamples = 1735\nvalue = [6.757, 1792.472]"] ;
7 -> 8 ;
9 [label="X[3] <= 0.17\ngini = 0.401\nsamples = 24\nvalue = [6.757, 17.634]"] ;
8 -> 9 ;
10 [label="gini = 0.0\nsamples = 7\nvalue = [6.757, 0.0]"] ;
9 -> 10 ;
11 [label="gini = 0.0\nsamples = 17\nvalue = [0.0, 17.634]"] ;
9 -> 11 ;
12 [label="gini = 0.0\nsamples = 1711\nvalue = [0.0, 1774.838]"] ;
8 -> 12 ;
13 [label="gini = -0.0\nsamples = 14\nvalue = [13.514, 0.0]"] ;
7 -> 13 ;
14 [label="X[19] <= -0.882\ngini = 0.376\nsamples = 3088\nvalue = [2272.27, 761.386]"] ;
0 -> 14 [labeldistance=2.5, labelangle=-45, headlabel="False"] ;
15 [label="X[4] <= -0.307\ngini = 0.206\nsamples = 468\nvalue = [55.986, 425.297]"] ;
14 -> 15 ;
16 [label="gini = 0.0\nsamples = 410\nvalue = [0.0, 425.297]"] ;
15 -> 16 ;
17 [label="gini = -0.0\nsamples = 58\nvalue = [55.986, 0.0]"] ;
15 -> 17 ;
18 [label="X[7] <= 0.41\ngini = 0.229\nsamples = 2620\nvalue = [2216.284, 336.089]"] ;
14 -> 18 ;
19 [label="X[13] <= -2.269\ngini = 0.049\nsamples = 2207\nvalue = [2080.179, 53.94]"] ;
18 -> 19 ;
20 [label="gini = 0.0\nsamples = 21\nvalue = [0.0, 21.784]"] ;
19 -> 20 ;
21 [label="X[2] <= -1.568\ngini = 0.03\nsamples = 2186\nvalue = [2080.179, 32.157]"] ;
19 -> 21 ;
22 [label="X[21] <= 1.736\ngini = 0.494\nsamples = 28\nvalue = [15.444, 12.448]"] ;
21 -> 22 ;
23 [label="gini = 0.0\nsamples = 12\nvalue = [0.0, 12.448]"] ;
22 -> 23 ;
24 [label="gini = -0.0\nsamples = 16\nvalue = [15.444, 0.0]"] ;
22 -> 24 ;
25 [label="X[17] <= 1.573\ngini = 0.019\nsamples = 2158\nvalue = [2064.735, 19.709]"] ;
21 -> 25 ;
26 [label="gini = -0.0\nsamples = 1935\nvalue = [1867.817, 0.0]"] ;
25 -> 26 ;
27 [label="X[19] <= 1.006\ngini = 0.165\nsamples = 223\nvalue = [196.917, 19.709]"] ;
25 -> 27 ;
28 [label="gini = 0.0\nsamples = 19\nvalue = [0.0, 19.709]"] ;
27 -> 28 ;
29 [label="gini = -0.0\nsamples = 204\nvalue = [196.917, 0.0]"] ;
27 -> 29 ;
30 [label="X[9] <= -0.136\ngini = 0.439\nsamples = 413\nvalue = [136.105, 282.148]"] ;
18 -> 30 ;
31 [label="X[21] <= -0.005\ngini = 0.344\nsamples = 355\nvalue = [80.118, 282.148]"] ;
30 -> 31 ;
32 [label="gini = 0.0\nsamples = 180\nvalue = [0.0, 186.716]"] ;
31 -> 32 ;
33 [label="X[3] <= 0.17\ngini = 0.496\nsamples = 175\nvalue = [80.118, 95.433]"] ;
31 -> 33 ;
34 [label="gini = 0.134\nsamples = 89\nvalue = [80.118, 6.224]"] ;
33 -> 34 ;
37 [label="gini = -0.0\nsamples = 86\nvalue = [0.0, 89.209]"] ;
33 -> 37 ;
38 [label="gini = -0.0\nsamples = 58\nvalue = [55.986, 0.0]"] ;
30 -> 38 ;
}